<?xml version="1.0"?>
<opencv_storage>
<my_svm type_id="opencv-ml-svm">
  <svm_type>C_SVC</svm_type>
  <kernel><type>LINEAR</type></kernel>
  <C>1.0000000000000000e-002</C>
  <term_criteria><epsilon>1.1920928955078125e-007</epsilon>
    <iterations>1000</iterations></term_criteria>
  <var_all>3780</var_all>
  <var_count>3780</var_count>
  <class_count>2</class_count>
  <class_labels type_id="opencv-matrix">
    <rows>1</rows>
    <cols>2</cols>
    <dt>i</dt>
    <data>
      -1 1</data></class_labels>
  <sv_total>1</sv_total>
  <support_vectors>
    <_>
      -3.00308280e-002 2.06450708e-002 2.10646372e-002 -6.38951287e-002
      -2.78940611e-003 -7.00416369e-003 2.63567623e-002 2.86643463e-003
      -5.31587824e-002 -6.80846795e-002 1.98247246e-002 2.22148523e-002
      -5.17892577e-002 1.29466234e-002 -6.65720254e-002 1.13740088e-002
      -2.48651224e-004 -6.70493394e-002 -1.04348576e-002 3.72286513e-002
      3.82285453e-002 -4.07652967e-002 -2.82466765e-002 1.73568707e-002
      6.13934025e-002 2.86743231e-002 -7.41612539e-003 -3.30409594e-002
      2.99472474e-002 4.04271372e-002 -2.22071148e-002 -3.59204896e-002
      -2.82548778e-002 2.74515487e-002 4.67981584e-003 -3.68567891e-002
      -8.78213253e-003 1.77031010e-002 1.40398229e-002 -3.74595672e-002
      5.85621316e-003 -5.64854294e-002 -5.84140536e-004 -1.10401139e-002
      -5.63966893e-002 -5.44317358e-004 2.88583077e-002 8.39980878e-003
      -7.12866560e-002 9.76341497e-003 -4.43568490e-002 -1.72293261e-002
      -3.37693766e-002 -4.27465588e-002 -1.57690719e-002 3.18447053e-002
      2.58679725e-002 -4.23667207e-002 -5.59716523e-002 -2.79404987e-002
      3.19798663e-002 1.04166865e-002 -3.75722498e-002 -1.01253306e-002
      4.86699343e-002 2.78040972e-002 -6.22386709e-002 -6.04641996e-002
      -4.87736762e-002 1.56889316e-002 1.42412335e-002 -3.36854570e-002
      -1.17034577e-002 2.46789288e-002 7.86657562e-004 -4.30801101e-002
      3.58843654e-002 -4.53732498e-002 -1.99599564e-002 -3.80825661e-002
      -1.68567784e-002 -2.72073578e-002 2.93744206e-002 1.00410832e-002
      -5.96729759e-003 6.36124834e-002 -7.80446036e-003 -1.92825552e-002
      -4.66112085e-002 -4.92340960e-002 2.58769859e-002 4.82566617e-002
      1.81221757e-002 -2.36173682e-002 -2.76465118e-002 -5.24095558e-002
      -1.19023863e-002 -2.44176853e-002 -1.31754030e-004 1.46831013e-002
      4.11020704e-002 2.08697002e-002 -1.63838621e-002 -2.32327357e-002
      -2.57037841e-002 -4.55621816e-003 -3.41531374e-002
      -6.22512121e-003 -2.54213158e-002 -2.30266619e-002
      -1.55642694e-002 -1.80753898e-002 3.32555696e-002 -5.90284029e-003
      -1.45040788e-002 -3.78372744e-002 -3.66923362e-002 3.58715542e-002
      3.90344262e-002 3.76807712e-002 2.87553631e-002 6.51080236e-002
      1.59870125e-002 1.76066086e-002 -7.11352751e-003 2.30234154e-002
      2.60557942e-002 -8.78298830e-004 -2.79809944e-002 -2.12519187e-002
      -3.90500762e-002 -6.17238320e-003 5.76022023e-004 -1.40854698e-002
      1.60218682e-002 3.83312963e-002 5.39409816e-002 2.95516793e-002
      2.79295277e-002 1.80624798e-002 4.37908731e-002 2.47856006e-002
      3.37520801e-002 3.69127728e-002 2.53652968e-002 1.19609283e-002
      1.31775811e-002 -3.45327295e-002 1.72872411e-003 -2.05074660e-002
      -1.87159255e-002 -4.45257910e-002 1.97416078e-002 3.31328548e-002
      5.75627685e-002 5.08580171e-002 9.43433307e-003 3.13146263e-002
      1.01901600e-002 3.46777402e-002 1.36690009e-002 2.66775098e-002
      -3.90454801e-003 -1.03996880e-002 8.51664878e-003 2.89827655e-003
      -2.22425461e-002 -3.20802839e-003 -1.80770978e-002
      -5.04929759e-002 -1.25972331e-002 1.51175633e-002 1.62768923e-002
      5.36821634e-002 5.91572486e-002 -2.42264033e-003 1.44915879e-002
      1.95848458e-002 -2.23076567e-002 -1.14110336e-002 4.80176508e-002
      4.86578718e-002 1.79606806e-002 -1.88488495e-002 1.89187452e-002
      -1.65028889e-002 5.12472680e-003 -1.22917313e-002 2.13023508e-003
      6.06669448e-002 4.70842198e-002 2.36674510e-002 -1.34148523e-002
      2.67977472e-002 4.73524816e-003 3.49399894e-002 1.76050570e-002
      3.06165721e-002 -1.05661144e-002 -3.08712088e-002 1.07604340e-002
      2.23462400e-003 -2.65228152e-002 -1.99621543e-002 1.24207130e-002
      -4.24096808e-002 3.17375088e-004 -2.41191499e-003 -1.74101517e-002
      1.34443035e-002 8.43816996e-003 -4.07903530e-002 1.31982844e-002
      4.50846367e-002 1.70853420e-003 -2.92300247e-003 3.64425033e-002
      1.27752768e-002 -2.26064250e-004 -4.34189998e-002 1.34311374e-002
      -1.22328699e-002 1.60426572e-002 -3.09964530e-002 -6.56559772e-004
      4.93868552e-002 1.01722684e-002 2.74366904e-002 -2.41012648e-002
      3.60487029e-002 -9.20030812e-004 3.87780070e-002 -3.16407420e-002
      2.59257220e-002 2.05931533e-003 -8.77371244e-003 1.33841410e-002
      -1.94037687e-002 -6.27396554e-002 -1.81894638e-002 1.65947974e-002
      -3.14999782e-002 -7.98772834e-003 1.89018101e-002 1.34173669e-002
      2.96777468e-002 6.70755096e-003 4.68126178e-004 -8.14384874e-003
      6.57308474e-002 -1.11298105e-002 1.08100371e-002 3.05311456e-002
      -2.67245490e-002 1.47605250e-002 -2.46093739e-002 2.76169199e-002
      -3.87965068e-002 2.31213551e-002 -4.86597046e-002 6.12550322e-003
      5.49979657e-002 1.74311884e-002 4.60343547e-002 -3.99393868e-003
      5.41952215e-002 -3.09770610e-002 3.84777933e-002 -3.25296912e-003
      2.54525673e-002 -1.47785349e-002 -2.76903696e-002 8.28533620e-003
      -1.28411949e-002 1.73003401e-003 -2.43465174e-002 6.40239380e-003
      -6.53020591e-002 -5.42307235e-002 -6.75342092e-003 2.08782637e-003
      5.11904359e-002 3.89337055e-002 2.04500929e-002 5.10846730e-003
      8.71042348e-003 -2.18695402e-002 -1.63559932e-002 5.00633605e-002
      5.17999381e-003 -1.03450604e-002 -5.12545630e-002 -2.28814408e-003
      -4.99396063e-002 3.30340513e-003 -3.96521809e-003 1.82398297e-002
      2.56207678e-002 -2.45495941e-002 -2.41246470e-003 2.68891803e-003
      3.30110118e-002 -1.82141922e-002 1.52500151e-002 2.18005814e-002
      2.55916566e-002 5.83470520e-003 -3.87218955e-004 -9.18289181e-003
      -1.04222884e-002 -1.24072982e-002 -2.42646411e-002
      -4.49943030e-003 -1.89645905e-002 -6.95987977e-003 4.15891632e-002
      -6.55995449e-003 -2.63069617e-003 1.49568403e-002 -1.09871859e-002
      -1.65377442e-005 4.95357737e-002 2.61432882e-002 3.40920836e-002
      2.38763597e-002 3.68936034e-003 3.39997262e-002 6.31725241e-004
      3.32982540e-002 1.05812913e-002 2.88845804e-002 8.09106044e-003
      1.30440993e-003 2.71585044e-002 4.18563746e-002 6.39001951e-002
      1.62598342e-002 3.72466035e-002 1.00893795e-003 3.93687412e-002
      5.82680572e-004 1.36485454e-002 2.49899942e-002 4.11306415e-003
      2.25250889e-002 -1.19439093e-002 -1.29095828e-002 3.24611133e-003
      2.65839249e-002 -2.37533241e-003 1.58148371e-002 3.67787341e-003
      2.03749109e-002 4.40808870e-002 -9.07414313e-003 -1.26625318e-002
      -4.98351781e-003 1.03020007e-002 -2.52227169e-002 -8.29358213e-003
      4.99892831e-002 2.83508450e-002 3.38610932e-002 -1.23956446e-002
      1.00109624e-002 -6.03721105e-003 4.28383052e-002 2.09663603e-002
      2.18548086e-002 4.14367244e-002 5.25348932e-002 2.84378491e-002
      -1.69723406e-002 1.04464265e-002 1.06107267e-002 1.76589545e-002
      1.85215287e-002 3.01639549e-002 2.92713661e-002 8.15942883e-003
      6.25418685e-003 -3.66921024e-003 -2.48691570e-002 -1.47029320e-002
      1.90567430e-002 -1.13608055e-002 2.09788997e-002 3.02579757e-002
      7.46496161e-003 -6.47282228e-003 -2.42813360e-002 -3.50932926e-002
      2.70159375e-002 2.54342053e-002 8.39114655e-003 3.63519751e-002
      5.34714796e-002 3.10643837e-002 1.47862760e-002 -3.49895470e-002
      3.18102241e-002 -4.95980214e-003 -5.24764881e-003 -1.61638372e-002
      2.82973573e-002 4.02783900e-002 9.29737929e-003 3.83935384e-002
      -1.24494138e-003 7.55352303e-002 -8.83117598e-003 1.10898158e-002
      2.60278909e-003 1.69267040e-002 2.49757413e-002 6.27001468e-003
      -1.13789216e-002 -2.61284970e-002 -2.78712623e-002 2.05341857e-002
      9.29759536e-003 -5.12099080e-003 3.12803611e-002 1.56026427e-002
      1.52365421e-004 -1.28244525e-002 -2.21453551e-002 3.11822281e-003
      9.73967277e-003 2.07333136e-002 1.00526353e-002 1.39216883e-002
      5.72069176e-002 -1.63374394e-002 -2.47236285e-002 -2.83719953e-002
      5.20852320e-002 -2.60423403e-002 -1.20373890e-002 -2.30388101e-002
      2.89468803e-002 8.12914371e-002 6.61002612e-003 -3.00075337e-002
      -6.44365745e-003 4.81935404e-002 6.05821656e-003 -1.02129756e-002
      -5.69869624e-003 6.72079697e-002 -4.68390121e-004 -3.01369186e-002
      -4.68238853e-002 -2.99632382e-002 -1.56824458e-002
      -5.10835275e-002 -5.15703224e-002 -5.32470271e-002
      -5.80017269e-003 1.67959873e-002 -1.02142682e-002 -3.20612788e-002
      6.33909600e-004 -6.66305469e-003 -2.83257663e-002 -5.67947812e-002
      -3.20604555e-002 3.07819732e-002 2.58909818e-002 -2.50824578e-002
      -3.69970649e-002 -3.68583798e-002 3.31300534e-002 1.62228234e-002
      2.34307218e-002 -9.35074408e-003 1.17522879e-002 1.78706727e-003
      1.51991416e-002 -1.61170792e-002 -1.02991322e-002 4.32776324e-002
      2.53144931e-002 5.47913983e-002 7.04566091e-002 1.56770330e-002
      -8.77812447e-004 -2.69974042e-002 -5.11778258e-002
      -2.28153858e-002 -2.62723323e-002 -1.26371030e-002 1.87469681e-003
      -1.13180196e-002 -6.51312200e-003 -1.75675564e-002 3.52435559e-002
      -1.98545344e-002 2.07468052e-003 1.65442899e-002 3.87135968e-002
      6.45916164e-002 5.39682284e-002 -1.79465748e-002 -3.33039761e-002
      1.85002778e-002 1.74206197e-002 -8.50902684e-003 8.79173800e-002
      -6.01450121e-003 2.41105966e-002 4.44931760e-002 -1.97763462e-002
      -2.09649671e-002 1.14255054e-002 -4.44755610e-003 -2.80406326e-003
      1.11391462e-001 1.97403645e-003 -9.28791147e-003 3.63395363e-003
      -3.18331793e-002 -3.65753546e-002 6.99497238e-002 2.16898080e-002
      -9.81344376e-003 3.61432321e-002 2.92662065e-003 5.38453320e-003
      3.92124280e-002 -4.17726636e-002 -6.86582644e-003 2.67748944e-002
      1.09932479e-002 4.95285913e-003 5.02459556e-002 -1.62149798e-002
      -1.94060020e-002 6.33427035e-003 1.09212138e-002 -6.48937225e-002
      1.33120017e-002 1.39393788e-002 -5.99094257e-002 -4.56489548e-002
      -2.42985087e-003 4.09515165e-002 2.61901245e-002 -3.49066593e-002
      -6.19969890e-002 2.16775145e-002 1.44227836e-002 -4.41040695e-002
      -3.13892588e-002 -3.80094796e-002 3.93868936e-003 -6.26875274e-003
      -6.67130128e-002 -1.49592822e-002 4.04096879e-002 1.61739755e-002
      -4.74774577e-002 -3.16222385e-002 -1.41829681e-002 5.04318774e-002
      3.03134695e-002 -1.28594204e-003 -4.00492996e-002 2.86886748e-002
      5.22132788e-004 -2.05141436e-002 -2.33310834e-002 -1.27415638e-002
      3.49578261e-002 1.69296023e-002 -3.46658900e-002 -3.04772016e-002
      3.15104350e-002 1.97708979e-002 -3.37660708e-003 -2.69582961e-002
      -1.56436935e-002 3.66943479e-002 2.19156947e-002 -5.93302399e-002
      -3.22663896e-002 2.93838885e-002 2.25300081e-002 1.41610682e-003
      -2.72211768e-002 -3.77769284e-002 9.25680995e-003 2.28091478e-002
      -5.36162108e-002 -2.29208972e-002 3.64652239e-002 -1.95986517e-002
      -1.78722739e-002 -4.79656905e-002 -3.24501283e-002 3.31701376e-002
      5.51111363e-002 -6.49248390e-003 -7.67715499e-002 -3.99734871e-003
      -1.58049669e-002 -2.14466937e-002 -7.13993981e-003
      -2.82983575e-002 3.46967950e-002 3.30521688e-002 -4.21508551e-002
      1.10667115e-002 3.30530442e-002 8.30028113e-003 -5.99099463e-003
      -1.83194187e-002 -3.72242518e-002 -4.77451133e-003 1.42771881e-002
      1.21476082e-002 1.96626820e-002 3.78056755e-003 -1.03407754e-002
      -1.43288132e-002 -4.56278399e-003 -3.87960970e-002
      -3.25364061e-002 -3.34111862e-002 2.50033271e-002 -3.86321954e-002
      1.41417952e-002 -4.42284625e-003 2.21701199e-003 1.43972076e-002
      -2.49494892e-002 3.57773062e-003 -9.85920615e-003 -4.73929420e-002
      2.67043430e-002 1.17301764e-002 -1.63782965e-002 -1.64531991e-002
      1.53811378e-002 -6.62968494e-003 -1.72498748e-002 -2.42446102e-002
      -2.12253574e-002 4.61476743e-002 -1.03497906e-002 -2.08323281e-002
      3.08943854e-004 -1.87000930e-002 -2.55110245e-002 -2.50080917e-002
      -1.86200403e-002 5.63877560e-002 1.35805588e-002 -9.64278821e-003
      2.52343398e-002 5.62392026e-002 2.80023254e-002 2.49146931e-002
      2.86171380e-002 3.07770520e-002 6.73136637e-002 1.29929520e-002
      -8.32610428e-002 -8.92380103e-002 -5.13211079e-002
      -1.71889423e-003 -2.87654600e-003 -3.00969314e-002
      -3.50016244e-002 2.48892158e-002 -2.40190327e-002 -1.09006114e-001
      -6.97583705e-002 1.66954659e-002 3.51745896e-002 4.97850999e-002
      3.44801806e-002 4.09331135e-002 4.87543494e-002 -6.89690709e-002
      -7.89471045e-002 -1.82595523e-003 4.49435636e-002 2.31660381e-002
      2.05004402e-002 1.13794217e-002 -4.58566053e-003 1.90716144e-002
      -4.17105667e-002 -4.79766168e-002 3.99904028e-002 8.44996497e-002
      5.02517670e-002 4.31231037e-002 5.79373576e-002 4.88500251e-003
      2.21082829e-002 -8.90931115e-002 -1.62433133e-001 -5.21344244e-002
      2.72874013e-002 3.99556197e-002 1.24297487e-002 2.80712657e-002
      2.93129329e-002 2.18480900e-002 -6.46180585e-002 -9.81090665e-002
      3.55963446e-002 5.97996973e-002 3.84049900e-002 2.44204160e-002
      4.70914505e-002 3.35069187e-002 1.58340652e-002 -1.55078061e-002
      -5.39671108e-002 2.18638908e-002 3.51588577e-002 2.36463291e-003
      2.87120440e-003 2.74540167e-002 -4.14875038e-002 -1.41447899e-003
      -4.46582632e-003 -2.47307774e-002 2.83170026e-002 4.14212532e-002
      -4.50500147e-003 2.54732594e-002 4.20053750e-002 4.53501707e-003
      2.97520459e-002 -2.40229405e-002 -9.93699133e-002 1.28753213e-002
      4.89171892e-002 3.13239954e-002 -6.09130412e-003 -1.29540274e-002
      -3.38172987e-002 1.18243033e-002 7.17438012e-003 -5.91657795e-002
      1.72705315e-002 4.73069996e-002 2.36933865e-002 3.42352651e-002
      8.76106601e-003 1.51088582e-002 2.51355842e-002 -3.99673078e-003
      -3.31938751e-002 4.74379369e-004 -2.39484082e-003 -3.84459607e-002
      -6.34383224e-003 1.58213601e-002 -3.38433273e-002 1.06739886e-002
      3.20299156e-002 -7.50599382e-003 5.76647604e-003 1.61313787e-002
      7.51112401e-003 2.74509434e-002 3.12620103e-002 -8.66316259e-003
      4.57322709e-002 -2.89681498e-002 -9.46838707e-002 7.28241168e-003
      2.44062813e-003 -1.77956745e-002 -7.25714909e-003 4.23667906e-003
      -5.82655612e-003 7.93007668e-003 -3.12035587e-002 -5.73300980e-002
      1.78064834e-002 2.33198516e-002 2.23188866e-002 3.76328193e-002
      1.17818881e-002 1.93921372e-003 1.07869729e-002 -3.21422762e-004
      -2.23274343e-002 8.19829386e-003 1.22561567e-002 1.82107259e-002
      1.09332222e-002 2.18690913e-002 -3.10379826e-002 -2.98991404e-003
      5.88448206e-003 -1.14907091e-002 4.17915769e-002 2.49118172e-002
      1.81092974e-002 9.64448694e-003 2.64085457e-002 -2.50836518e-002
      6.16833800e-003 -6.63413927e-002 -6.27054572e-002 1.35060158e-002
      1.35712726e-002 2.07621865e-002 1.35471793e-002 1.24646556e-002
      -1.76059939e-002 -1.02575971e-002 -5.73415272e-002
      -5.68771102e-002 2.63473224e-002 -4.02434776e-003 -1.84858963e-002
      -2.07290594e-002 3.24220653e-003 -2.24986989e-002 -5.54401614e-002
      4.89399917e-002 -1.08250789e-002 9.99785867e-003 8.88945721e-003
      -1.20261079e-002 8.13180488e-003 3.88551392e-002 2.76106130e-003
      2.03222968e-002 3.22294906e-002 -1.05971759e-002 1.99174862e-002
      2.12949812e-002 1.23551616e-003 1.95987616e-002 6.97944015e-002
      4.39523049e-002 4.59866486e-002 -1.32966973e-002 -2.70943660e-002
      2.29619388e-002 -2.29730047e-002 -6.57310113e-002 -5.26087023e-002
      -8.27556383e-003 -1.24249635e-002 -1.99882835e-002
      -4.43789996e-002 1.35773048e-002 4.05682549e-002 7.32697640e-003
      -6.16422743e-002 -3.27268243e-002 2.83363685e-002 -1.66419540e-002
      -2.29263436e-002 2.64488421e-002 3.44196032e-003 4.42992300e-002
      1.57069210e-002 5.03245834e-003 2.55171191e-002 3.80603373e-002
      2.92552728e-002 6.05245307e-002 1.51816765e-002 7.68900150e-003
      3.85588743e-002 2.29597539e-002 -4.35082894e-003 6.25941250e-003
      1.52359568e-002 3.34285572e-002 4.79657762e-002 -4.70951237e-002
      -1.41341975e-002 4.59601581e-002 1.88131202e-002 -4.45981883e-002
      -9.06520290e-004 3.41308452e-002 -3.31184041e-004 8.82270187e-003
      -2.70473231e-002 -2.75756419e-002 1.48035055e-002 1.59785803e-002
      -2.76638288e-002 -1.14469072e-002 2.68520769e-002 3.76146808e-002
      -9.32925567e-003 4.83414195e-002 1.70769088e-003 1.95117164e-002
      2.01862827e-002 -1.28364963e-002 -1.56978965e-002 2.63120700e-002
      3.27368192e-002 8.87467116e-002 5.95099069e-002 2.12117657e-002
      2.57415958e-002 -3.99476988e-003 3.39078513e-004 2.93767806e-002
      4.89207692e-002 4.04230766e-002 7.12554231e-002 -6.54042326e-003
      1.67077512e-003 8.04917794e-003 -1.14086596e-003 -5.67409433e-002
      -4.43047993e-002 1.38728898e-002 3.07725631e-002 2.02805120e-002
      4.90901014e-003 1.06461728e-002 2.32285019e-002 -1.82429068e-002
      -7.81727433e-002 -9.03296657e-003 1.31377438e-002 3.67214829e-002
      -8.71225353e-003 4.31753099e-002 5.46982652e-003 5.23419026e-003
      -1.79135986e-002 1.26595078e-002 4.94142435e-002 5.58853075e-002
      6.05185609e-003 5.36507703e-002 2.93918233e-002 -4.75372700e-003
      -1.62899960e-003 1.28192771e-002 4.33483459e-002 3.53653133e-002
      4.98172939e-002 7.85858929e-003 6.28797933e-002 -7.22570019e-003
      -3.66548114e-002 -1.17965713e-002 -8.63831956e-003
      -3.16448659e-002 1.80831142e-002 3.46706659e-002 2.22996138e-002
      1.38445431e-002 -4.46847174e-004 -3.01424246e-002 -2.85207201e-002
      -4.88862116e-003 -1.70779619e-002 -3.33042629e-002
      -6.85336627e-003 -1.97258871e-002 1.75660178e-002 3.80948782e-002
      1.98501139e-003 -7.87669420e-003 1.95409730e-002 4.14354056e-002
      -1.80314630e-002 -1.16612678e-002 -3.67666334e-002 3.41226570e-002
      6.06163479e-002 5.12336791e-002 3.17446962e-002 4.61207367e-002
      4.88814712e-002 -1.10400924e-002 -1.29996780e-002 -4.85486444e-003
      6.10922575e-002 -3.67262866e-003 -4.96362820e-002 -6.64046034e-002
      -4.74790595e-002 -2.51488965e-002 -6.72953725e-002
      -4.68622781e-002 -4.89644334e-002 -9.07560065e-003 1.54773742e-002
      -1.62009485e-002 -3.23255584e-002 -2.42405348e-002
      -2.84198374e-002 -5.36985844e-002 -5.02128489e-002
      -6.38667420e-002 8.34510848e-003 1.78243946e-002 3.76189798e-002
      -2.07867823e-003 1.37139400e-002 -5.03569469e-003 -3.76014374e-002
      -2.44296100e-002 -1.91578325e-002 5.46497339e-003 9.02830530e-003
      6.50922060e-002 3.28756943e-002 3.03468406e-002 3.15248743e-002
      3.29503715e-002 4.48874012e-002 4.10500690e-002 -9.33803152e-003
      -3.21192201e-003 -3.13441758e-003 -1.79598369e-002
      -4.21528779e-002 -7.65224174e-002 -9.06835124e-002
      -8.70988443e-002 -5.45223095e-002 -6.67415210e-004 6.00652359e-002
      6.20445497e-002 4.69638035e-002 6.67033112e-003 -1.78801287e-002
      -2.23684572e-002 3.24390456e-003 2.20986363e-002 4.63055111e-002
      -2.90592797e-002 5.56058809e-002 3.43731558e-003 -2.19422821e-002
      2.81822942e-002 -5.72373974e-004 1.05953328e-002 1.59982927e-002
      -5.51513508e-002 1.39020244e-002 3.37470472e-002 -4.54264274e-003
      -2.61717979e-002 1.74742285e-002 6.25125924e-003 1.57655701e-002
      3.36879976e-002 1.09559419e-002 -1.64146274e-002 1.38209201e-002
      -8.38152226e-003 -2.32328549e-002 1.49041526e-002 3.98928067e-003
      4.98966221e-003 2.18681735e-003 -1.17961233e-002 3.18101831e-002
      2.48435549e-002 -1.14061953e-002 -1.23080825e-002 3.77534218e-002
      1.73930302e-002 1.93871539e-002 3.82559523e-002 5.86255603e-002
      -2.92153545e-002 3.45286392e-002 1.39641538e-002 -4.93958518e-002
      -4.31612916e-002 3.77040613e-003 4.73693199e-002 3.48383300e-002
      -7.09324004e-003 -7.07434490e-002 4.72028032e-002 5.71992947e-003
      -5.52058779e-002 -4.08375002e-002 -1.94410924e-002 4.14652079e-002
      2.35927831e-002 -6.10951036e-002 -4.64646593e-002 4.17285785e-002
      3.84816825e-002 1.24443388e-002 -4.10891436e-002 -1.27110109e-002
      2.67129838e-002 1.64666679e-002 -6.81857914e-002 -5.58259450e-002
      2.48108953e-002 2.44024433e-002 -4.33290601e-002 -4.75347303e-002
      -4.78708409e-002 3.20227779e-002 3.36851180e-002 -9.35515836e-002
      1.63617302e-002 5.27519286e-002 -9.15615633e-003 -1.47674140e-002
      2.45938008e-003 4.65058833e-002 7.93158114e-002 8.72044414e-002
      5.48728593e-002 -7.49005750e-002 -8.06043744e-002 -6.90791681e-002
      -3.80573682e-002 2.71982662e-002 3.23200934e-002 5.32766543e-002
      4.90584560e-002 -1.31362118e-002 1.05040241e-002 -2.57778540e-002
      -1.15733154e-001 -1.24134846e-001 -6.80154935e-002 1.14493296e-002
      6.69680312e-002 1.00125335e-001 3.46369855e-002 -1.13438241e-001
      -1.90674514e-001 -2.18608499e-001 -1.69706449e-001
      -5.31711802e-002 2.27438728e-003 1.47706699e-002 1.07542695e-002
      -7.71837980e-002 -5.74160069e-002 -1.72813516e-002 2.50077411e-003
      4.19228636e-002 6.72081634e-002 4.46521044e-002 3.32520418e-002
      -1.74830798e-002 -5.77875152e-002 1.97935011e-002 4.36961604e-003
      -3.72300707e-002 -4.46058111e-003 8.10080096e-002 5.88828735e-002
      1.06509887e-002 -4.64525819e-002 -3.81864384e-002 -1.24712668e-001
      -1.33860052e-001 -6.49287254e-002 -2.90594734e-002 4.10043038e-002
      3.08839660e-002 -3.91060524e-002 -1.10657431e-001 -1.48244545e-001
      -3.22633833e-002 -7.65889511e-002 -8.93877447e-002
      -7.55181164e-002 1.81475338e-002 1.25864120e-002 -9.60304663e-002
      -1.17033333e-001 -8.27620104e-002 2.14039069e-002 -1.68751046e-001
      -2.19845518e-001 -1.37653008e-001 7.13430950e-003 4.40204553e-002
      2.19480903e-003 -3.81674916e-002 4.57287729e-002 1.07336033e-003
      -1.54344544e-001 -1.36897102e-001 4.81370464e-003 8.41157958e-002
      1.16626300e-001 7.75862187e-002 5.35830520e-002 1.09987371e-001
      6.00568615e-002 -1.47208303e-001 -2.35093981e-001 -1.81225538e-001
      -2.80419737e-002 -2.16901880e-002 -1.11955673e-001
      -7.03497157e-002 4.12554257e-002 9.43776295e-002 -6.63827881e-002
      -9.81663316e-002 -8.67983140e-003 1.00434303e-001 7.61452317e-002
      1.44697176e-002 6.06849678e-002 1.56459272e-001 -9.37419832e-002
      -2.13876992e-001 -1.06989458e-001 -1.01813320e-002 3.65724675e-002
      3.09014525e-002 4.27028164e-003 -2.66306289e-002 5.48270857e-003
      -5.21392040e-002 -9.48826224e-002 4.31412607e-002 7.23441914e-002
      4.77444008e-002 -2.18127063e-003 8.50530248e-003 -1.90191492e-002
      -3.02276555e-002 -1.00989994e-002 -8.65221396e-002
      -3.75065506e-002 4.63234447e-002 7.73208290e-002 1.47035858e-002
      -6.01543998e-003 -9.04874969e-003 6.69742078e-002 -4.41735517e-003
      -8.01024307e-003 7.56936371e-002 1.14199854e-001 1.04969896e-001
      6.14499301e-002 3.63634266e-002 1.09752296e-002 1.78043190e-002
      -5.10311760e-002 -1.12096965e-001 1.55222863e-002 5.96764944e-002
      5.21628186e-002 1.66031299e-003 -1.86492149e-002 -7.47158974e-002
      -6.77834600e-002 -5.97390272e-002 -1.09077856e-001 8.07796326e-003
      6.10805750e-002 5.14203608e-002 2.86673568e-002 3.27605219e-003
      -3.59688438e-002 -4.21721824e-002 -1.23939607e-002
      -3.58472951e-002 4.57037054e-002 6.32382035e-002 8.68803412e-002
      6.14118837e-002 3.91784832e-002 -2.04279497e-002 -8.47391598e-003
      4.90644656e-004 3.25872824e-002 6.83387965e-002 8.64070654e-002
      6.84821904e-002 5.12287468e-002 1.93210263e-002 4.84598614e-003
      1.26062110e-002 -7.00045601e-002 -1.30422503e-001 -8.61716550e-003
      7.14092003e-003 3.62550132e-002 -1.31435553e-002 -2.40550358e-002
      -4.64798696e-002 -5.93606234e-002 -8.19365010e-002
      -1.10321075e-001 1.38860084e-002 3.49531248e-002 2.94696745e-002
      1.11174146e-002 -1.57704875e-002 -2.06894539e-002 -3.90984975e-002
      2.01424547e-002 7.07907323e-003 5.26609458e-002 3.99469323e-002
      1.65352952e-002 -5.95988100e-003 -2.47840136e-002 4.45380108e-003
      4.11227494e-002 4.69961353e-002 1.30575011e-002 5.66567704e-002
      4.89314720e-002 -1.36851100e-003 -4.19000350e-003 2.35092416e-002
      1.66136604e-002 5.76450601e-002 -1.09150335e-001 -1.13082305e-001
      -1.69605277e-002 2.28304528e-002 1.90945361e-002 -9.06263420e-004
      2.22653919e-003 -3.19982991e-002 -6.31136373e-002 -9.30699036e-002
      -8.36953893e-002 1.51667632e-002 1.67545155e-002 -5.78411762e-003
      -2.26307865e-002 -6.88587222e-003 -6.43098652e-002
      -9.37296599e-002 3.94354798e-002 -2.27788109e-002 2.00591348e-002
      2.69464329e-002 -4.61207516e-003 -3.29140276e-002 4.68123611e-003
      1.51770208e-002 8.01472887e-002 5.32618053e-002 1.47875752e-002
      3.92137468e-002 4.50764261e-002 6.47443160e-003 1.40598789e-002
      2.01139227e-002 3.18838214e-003 4.68329564e-002 -8.96188766e-002
      -5.72161861e-002 4.26821448e-002 2.22212039e-002 -1.72235258e-002
      -4.92724217e-002 -1.30885243e-002 -6.99544773e-002
      -9.17612016e-002 -8.58869553e-002 -2.71160509e-002 6.48815185e-002
      5.61059862e-002 -1.11059872e-002 -2.68559176e-002 -1.42088300e-002
      -6.37648180e-002 -7.38475472e-002 4.05220836e-002 1.24770915e-002
      6.54059350e-002 7.36894757e-002 2.69174818e-002 1.77876428e-002
      2.94759907e-002 -1.94218215e-002 1.69153716e-002 -2.00521313e-002
      1.96410231e-002 8.18245038e-002 9.25082862e-002 2.74381228e-002
      1.72320101e-002 3.77435088e-002 -2.13481896e-002 -3.20831463e-002
      -5.08917756e-002 -7.02663837e-003 4.94447649e-002 7.18799755e-002
      3.02779227e-002 4.22059186e-002 3.06650251e-002 -3.34591493e-002
      -4.05662209e-002 -4.53467816e-002 -4.37581278e-002 2.51337923e-002
      8.43574256e-002 4.12374213e-002 4.09637801e-002 3.80110554e-002
      -1.08305004e-003 -2.61275936e-002 -4.05263118e-002
      -1.71380374e-003 6.26138151e-002 1.05017476e-001 6.26699999e-002
      6.64071962e-002 6.23841025e-002 -2.35931687e-002 -1.84253491e-002
      -8.32140297e-002 -8.07610601e-002 1.47264346e-003 1.05803616e-001
      8.48009735e-002 6.59642071e-002 3.62234637e-002 -3.32097821e-002
      -5.47142178e-002 -1.97375286e-003 -2.44463384e-002 3.14984173e-002
      6.88260719e-002 1.87053215e-002 1.41517902e-002 3.91635410e-002
      3.55971861e-003 1.59054287e-002 -9.81907477e-004 -4.55925241e-003
      2.42636558e-002 2.62209829e-002 5.74323628e-003 3.49582434e-002
      4.78491075e-002 1.44555354e-002 -1.49954651e-002 -5.01825735e-002
      -9.50302780e-002 1.82255395e-002 8.70105624e-002 7.52238482e-002
      7.38716945e-002 4.45957482e-002 -6.41375128e-003 -1.77523252e-002
      -6.79617003e-002 -4.46991138e-002 4.34543006e-002 6.48217648e-002
      4.97534871e-002 6.31663874e-002 8.48018229e-002 2.80310996e-002
      -6.39861003e-002 8.35954957e-003 -1.59762707e-002 1.78991910e-003
      3.09414640e-002 5.51885776e-002 5.97760379e-002 6.27244040e-002
      1.65438186e-002 7.09728710e-003 -1.75143257e-002 -1.61590036e-002
      -4.28530527e-003 2.23876815e-002 4.20577899e-002 3.73950936e-002
      5.10956272e-002 -3.11540021e-003 1.13959350e-002 -7.69380778e-002
      -2.67515499e-002 3.48526090e-002 8.13712329e-002 9.77038145e-002
      8.78853425e-002 1.07691154e-001 -3.16720456e-003 -8.14296156e-002
      -1.05601005e-001 -7.04759359e-002 -1.75948124e-004 4.55151424e-002
      7.52552748e-002 7.97593668e-002 8.49091336e-002 -4.24579531e-002
      -1.07245788e-001 1.19933560e-002 -4.69250455e-002 -4.31193337e-002
      -6.69281837e-003 3.16748507e-002 3.75726935e-003 1.11349230e-003
      -1.17803989e-002 2.91593671e-002 6.74904510e-002 1.46807311e-002
      -2.14715842e-002 1.87953394e-002 1.90611987e-003 1.18993176e-002
      -1.48424478e-002 -1.09189739e-002 7.15941936e-002 -7.04028010e-002
      -1.03320800e-001 -7.86835253e-002 -3.11935376e-002 2.45942660e-002
      7.35322153e-003 -1.58158853e-003 -5.45102619e-002 -7.03971311e-002
      -1.28789907e-002 -2.56675705e-002 -5.45258150e-002
      -1.57621633e-002 -4.71041724e-002 -4.84095626e-002
      -5.01663350e-002 -6.16532825e-002 8.98161670e-004 2.65273545e-002
      -1.62618235e-003 -3.56904827e-002 -5.64257205e-002
      -1.02375410e-001 -1.02025658e-001 -6.90048039e-002
      -2.38810368e-002 2.67133210e-002 9.62613821e-002 7.10132644e-002
      5.28662577e-002 2.80964561e-002 -2.07189424e-003 -4.31443751e-003
      2.74624117e-002 6.73863664e-002 8.80586281e-002 5.69583708e-003
      -4.18665558e-002 -5.95974997e-002 -8.27251524e-002
      -1.47024795e-001 -1.61112860e-001 -1.00320332e-001
      -6.44192025e-002 -1.20504014e-002 1.09467752e-001 8.78844112e-002
      6.90691397e-002 3.48129496e-002 -4.96378019e-002 -2.00815238e-002
      3.38426828e-002 7.33300224e-002 6.25715032e-002 1.42927363e-003
      -2.73381197e-003 -2.75453255e-002 -3.23216207e-002 9.27716307e-003
      -2.56610196e-002 1.00887120e-002 -3.07336194e-003 8.26753862e-003
      4.12481464e-002 2.25526430e-002 -2.35146452e-002 -2.66850297e-003
      2.97361854e-002 -2.78548319e-002 -1.73564069e-002 4.38367529e-003
      5.25996499e-002 1.45682786e-002 4.03827988e-002 2.36837082e-002
      -9.87920631e-003 2.79598814e-002 -3.87248583e-002 -3.26267048e-003
      2.31155436e-002 -6.14327891e-003 2.40665637e-002 2.94006243e-002
      -6.37137424e-003 -1.93382346e-003 4.61463407e-002 -1.62319746e-002
      -3.60616036e-002 4.14622901e-003 3.25115956e-002 -3.81485708e-002
      4.42066081e-002 7.69941360e-002 3.76577377e-002 -2.71580648e-002
      9.30232089e-003 5.69302551e-002 4.27583978e-002 -5.30816317e-002
      -5.81947379e-002 3.39368358e-002 3.63764837e-002 -7.34395012e-002
      -8.73732269e-002 -6.33895174e-002 5.37914895e-002 5.86599708e-002
      -7.66403973e-002 -6.31329194e-002 3.33974585e-002 5.60113117e-002
      2.85606156e-003 -3.29225659e-002 3.08900382e-002 8.33318084e-002
      6.22072183e-002 -5.03629372e-002 -8.78724456e-002 3.56407613e-002
      1.34384558e-002 -7.77842849e-002 -9.09359306e-002 -6.85719699e-002
      3.76631245e-002 5.48886731e-002 -4.74133417e-002 6.29134029e-002
      2.91393455e-002 -5.09676076e-002 -1.22451730e-001 -8.68688375e-002
      -5.37155233e-002 2.02930328e-002 8.83438960e-002 8.31553787e-002
      -8.40710197e-003 -1.27142280e-001 -1.50452361e-001
      -1.49905369e-001 -8.25539231e-002 -7.71748647e-002
      -7.26545081e-002 -4.99529159e-003 2.80800778e-002 8.61281976e-002
      8.53125677e-002 2.89153587e-002 -5.40241711e-002 -8.40524584e-002
      -1.27262786e-001 -8.36478695e-002 4.03761864e-002 9.11432207e-002
      2.63650529e-002 -2.14051995e-002 -4.40686978e-002 -8.43864232e-002
      -8.75031948e-002 -1.51522174e-001 -1.74495503e-001
      -1.00687459e-001 -3.70352622e-003 -5.39858453e-002
      -1.18141055e-001 -6.03267886e-002 -2.66004056e-002 3.81008014e-002
      -2.42356537e-003 -5.60298152e-002 -7.68558905e-002
      -4.86884899e-002 1.92550067e-002 -4.67414446e-002 -8.70369971e-002
      -2.60210112e-002 1.80710349e-002 -1.67076532e-002 -1.10402994e-001
      -8.28577429e-002 8.81432369e-003 -3.95321101e-002 -1.03635497e-001
      -4.37570103e-002 3.74224689e-003 1.56856719e-002 -3.99234071e-002
      -8.16715360e-002 -9.04015452e-002 -2.99334526e-002 1.47742163e-002
      -9.98663008e-002 -1.14632711e-001 2.78932974e-003 -1.29484590e-002
      -4.77851592e-002 -1.16214782e-001 -4.48082089e-002 4.93087992e-002
      1.01226442e-001 -8.19096789e-002 -1.89734459e-001 -1.64683670e-001
      -7.27341846e-002 -1.14594989e-001 -1.61666065e-001
      -6.59639910e-002 9.29598585e-002 1.55828699e-001 3.60603519e-002
      -1.47965588e-002 1.24073941e-002 4.06583510e-002 5.56702912e-003
      -2.91713383e-002 5.81037961e-002 1.71124458e-001 6.90655485e-002
      -8.14288929e-002 -1.26747757e-001 -9.04542804e-002
      -8.27948153e-002 -1.79062814e-001 -2.27029696e-001
      -1.10863149e-001 1.04245991e-001 1.56486705e-001 4.81913723e-002
      1.66720059e-002 2.55611148e-002 4.11062613e-002 -3.37029994e-002
      -4.88130152e-002 2.21772362e-002 1.66907549e-001 2.45682970e-002
      -5.82381673e-002 -4.17205617e-002 -9.84503236e-003 1.59368664e-002
      -4.20985632e-002 -4.75349277e-002 -2.93640774e-002 5.68530634e-002
      2.89750043e-002 7.70160183e-003 4.99882363e-002 5.46079054e-002
      8.23898241e-002 4.61964086e-002 1.84025150e-002 -3.97952320e-003
      3.88783365e-002 5.06819226e-002 -5.18366992e-002 -1.66060720e-002
      -3.30031589e-002 5.09441383e-002 -2.44405326e-002 -6.86961710e-002
      -7.11849555e-002 4.14822660e-002 4.61148769e-002 1.66662186e-002
      3.30957361e-002 3.64922285e-002 1.00779742e-001 6.84324801e-002
      2.62012966e-002 5.74648520e-003 2.42178645e-002 2.87924409e-002
      -4.45031328e-003 -1.25048659e-003 1.08053731e-002 3.34839895e-002
      1.57053471e-002 1.28138659e-003 -1.91662312e-002 3.52439075e-003
      5.23086935e-002 3.26764137e-002 2.44088452e-002 9.61004477e-003
      1.41907409e-002 1.38393336e-003 -6.91228919e-003 -1.19708832e-002
      3.53050567e-002 1.82330962e-002 -2.28022821e-002 -5.82146272e-003
      8.30394961e-003 4.51924093e-002 2.08676960e-002 -5.43744070e-003
      -4.66380967e-003 1.51889138e-002 5.33330217e-002 -3.32646212e-003
      -2.02625478e-003 1.59622505e-002 1.96670815e-002 1.09777609e-002
      1.92335378e-002 9.40829702e-003 2.74952706e-002 9.07131955e-002
      4.34362981e-003 4.31013817e-004 -3.77204567e-002 -5.91950603e-002
      -4.64462489e-002 -4.72696647e-002 -3.15315649e-003 8.82455483e-002
      1.35638595e-001 3.76436263e-002 5.09931846e-003 -4.06123362e-002
      -8.12511444e-002 -6.00231737e-002 -1.51575310e-002 3.01999282e-002
      1.46947518e-001 8.46715495e-002 2.63504423e-002 -2.56811213e-002
      -4.22188975e-002 -3.88344526e-002 -3.55941728e-002
      -1.57727450e-002 -2.62187631e-003 6.85485750e-002 1.16976857e-001
      2.42638048e-002 -1.98597386e-002 -8.37286487e-002 -8.18467215e-002
      -2.52094306e-002 1.22191841e-002 4.56378348e-002 1.20245934e-001
      1.05692089e-001 -2.71301214e-002 -4.01480682e-002 -7.71507621e-002
      -1.10213988e-001 -9.15022567e-002 -2.98817158e-002
      -1.79869663e-002 1.13067769e-001 1.00940898e-001 6.15517842e-003
      3.53065506e-003 -3.74535024e-002 -6.37272894e-002 -1.19966883e-002
      -7.73732224e-003 -1.34540396e-002 1.04317434e-001 8.51698369e-002
      -2.36515589e-002 -2.23970152e-002 -9.12226588e-002
      -8.86677876e-002 -3.33828554e-002 -8.34245980e-003
      -3.37381614e-004 9.73870084e-002 8.78702700e-002 -3.43871280e-003
      -7.27835391e-003 -2.70296764e-002 -3.85903269e-002 1.40716732e-002
      3.48896571e-002 1.31033445e-002 8.71343166e-002 8.32713917e-002
      -1.20427376e-002 1.19551904e-002 8.00069363e-004 -2.07123458e-002
      -1.57298483e-002 -1.04058883e-003 -4.65457626e-002 5.50040640e-002
      -1.95346586e-003 -5.31083420e-002 2.28759032e-002 2.47848742e-002
      2.43606027e-002 2.73384061e-003 -2.58930540e-003 -5.43409251e-002
      -3.52072064e-003 3.51222903e-002 -4.94369119e-003 1.69666335e-002
      -8.87328759e-003 1.16722463e-002 3.03523820e-002 1.41900238e-002
      -1.50489872e-002 5.85769862e-002 -6.97153620e-003 -5.47604039e-002
      1.75728723e-002 2.71755196e-002 3.94991823e-002 2.65412033e-002
      5.32471482e-003 -6.80115223e-002 -3.29141840e-002 9.92207043e-003
      -4.94356342e-002 3.58166993e-002 6.37171715e-002 5.85103817e-002
      4.04956341e-002 4.35326695e-002 -3.04712541e-002 1.78370550e-002
      -6.42288774e-002 -9.85922515e-002 -1.62455887e-002 7.53004998e-002
      6.21863119e-002 5.39413244e-002 1.68603994e-002 -8.67309645e-002
      -5.98909892e-002 1.18948873e-002 -4.79284488e-002 5.45155704e-002
      6.09100349e-002 6.50407895e-002 5.50692342e-002 3.77956405e-002
      -4.01154198e-002 -7.63697783e-003 -4.03348356e-002
      -5.65917455e-002 3.92192677e-002 5.70609458e-002 5.74192181e-002
      6.77555874e-002 -1.13242483e-002 -6.97570965e-002 -5.71189374e-002
      -4.99978140e-002 -9.31960195e-002 2.49580722e-002 6.82444721e-002
      4.28177640e-002 6.40809089e-002 4.08907570e-002 -5.10540083e-002
      -3.87591384e-002 -3.74075584e-002 -5.53211793e-002 5.61547950e-002
      6.67968690e-002 4.75469492e-002 4.83624749e-002 7.46534318e-002
      -8.98280833e-003 -3.74959074e-002 -7.49011058e-003
      -2.04397943e-002 4.62315790e-002 6.86395392e-002 4.07864675e-002
      7.15592280e-002 1.90777648e-002 -7.11628795e-002 -2.26299670e-002
      -9.24164429e-003 -1.20532056e-002 5.98581843e-002 6.91932216e-002
      3.39355692e-002 6.77624792e-002 5.94741367e-002 -2.24647708e-002
      -3.41307297e-002 -3.86543944e-002 -2.49517076e-002 4.62177731e-002
      9.78292525e-002 8.33413079e-002 6.80723935e-002 1.03033029e-001
      1.31209260e-002 -8.30706060e-002 -1.04771942e-001 -8.91350955e-002
      9.20228753e-003 7.96053782e-002 9.88934636e-002 8.10644776e-002
      5.77216707e-002 -5.60677983e-002 -1.24804832e-001 -5.28018847e-002
      1.51146576e-002 8.95041302e-002 1.10680684e-001 9.41028520e-002
      9.57468525e-002 7.26416185e-002 8.51547159e-003 -4.45779040e-002
      -1.33014366e-001 -4.30331491e-002 5.05294092e-002 8.29545781e-002
      7.84737840e-002 8.04522038e-002 2.93471310e-002 -5.26765585e-002
      -1.23704672e-001 -3.98287028e-002 -6.52078390e-002
      -1.85220856e-002 7.77276745e-003 3.72160710e-002 3.99068929e-002
      9.92945395e-003 -3.02985366e-002 -6.44605532e-002 2.50849524e-003
      -1.39328400e-002 4.12365561e-003 -1.14977481e-002 -5.89531995e-002
      -5.70890978e-002 -2.83072758e-002 -1.09009976e-002 4.37875185e-003
      -8.07697102e-002 -3.59593295e-002 1.70317292e-002 2.38093100e-002
      1.36134941e-002 5.02808951e-003 -2.75371168e-002 -3.00253872e-002
      -5.48123159e-002 9.85377282e-003 -1.08326795e-002 -5.89054124e-003
      -3.92780229e-002 -7.36810640e-002 -2.95276325e-002
      -2.30055694e-002 1.70408692e-002 1.05539700e-002 2.26817224e-002
      -1.98778622e-002 -3.02321408e-002 -8.96728784e-002
      -1.84276566e-001 -1.78520367e-001 -5.06559685e-002
      -1.37698576e-002 1.23265339e-002 1.26115501e-001 9.57683399e-002
      5.25589734e-002 2.74439752e-002 -4.72931489e-002 -7.79774645e-003
      4.40433919e-002 8.82372111e-002 9.17461291e-002 -8.59813672e-003
      -1.86843742e-002 -4.14568223e-002 -1.31030545e-001
      -1.67181835e-001 -1.09492376e-001 -1.39882723e-002
      -1.38968136e-002 8.28338042e-003 8.33445266e-002 9.44786370e-002
      3.97076868e-002 -6.44624699e-003 -2.98390090e-002 3.38193066e-002
      1.09274440e-001 1.19196691e-001 1.21551149e-001 1.29327886e-002
      3.86008359e-002 -5.03403833e-003 -2.95544248e-002 7.25275232e-003
      -4.30550426e-002 -2.25165859e-002 1.81462932e-002 -9.95208975e-003
      1.46553237e-002 1.48317125e-002 -1.37983700e-002 4.89329500e-003
      1.51180672e-002 -7.90557172e-003 -1.68053936e-002 1.24252615e-002
      2.05104817e-002 -1.22211576e-002 1.74685884e-002 -3.87851931e-002
      -5.66765852e-002 -1.14034349e-002 -2.68965177e-002 1.73519086e-002
      4.73170094e-002 1.13657415e-002 1.93292741e-002 3.45542422e-003
      -4.44486402e-002 -1.74618475e-002 1.58890262e-002 1.16635924e-002
      1.23029985e-002 3.96493115e-002 9.55029111e-003 -5.22709079e-002
      1.67652755e-003 2.06220113e-002 -1.25519438e-002 -2.66980436e-002
      -4.54661390e-003 3.97731401e-002 4.38097380e-002 -9.45791695e-003
      -6.92850724e-002 2.30866633e-002 3.55028696e-002 -4.00684662e-002
      -2.58550104e-002 -5.94792441e-002 -1.87317766e-002 2.65364945e-002
      -5.76709658e-002 -1.43176578e-002 9.31993593e-003 3.08344420e-002
      -1.42898243e-002 -4.13263850e-002 -6.15640692e-002 7.40836328e-003
      2.81202532e-002 6.32696599e-003 -4.76357825e-002 1.25801610e-002
      5.63229844e-002 -2.98161861e-002 -2.98028719e-002 -5.94606511e-002
      -1.98373888e-002 1.29282605e-002 -4.76029888e-002 4.91531938e-002
      8.52784887e-002 6.72293752e-002 2.38639545e-002 -4.61722836e-002
      -1.40457883e-001 -1.34463772e-001 -4.46044914e-002 4.84149577e-003
      -6.33497015e-002 -1.30017251e-002 1.06790271e-002 -6.82596676e-003
      -4.87235785e-002 -1.85730055e-001 -1.93446919e-001
      -1.94287121e-001 -1.17500901e-001 5.17042056e-002 7.43580386e-002
      8.69062617e-002 4.35779169e-002 -5.36770467e-003 -3.33912224e-002
      -3.33327875e-002 2.06671655e-002 1.28317503e-002 -2.51043346e-002
      2.16355994e-002 4.83829528e-002 6.06741803e-003 -8.12596083e-003
      -5.63376769e-002 -6.01885803e-002 -6.99018687e-002
      -7.12487698e-002 -1.24100097e-001 -1.26189634e-001
      -3.43423150e-002 2.08090246e-002 8.90106615e-003 -4.48557101e-002
      -6.26177341e-002 -1.07812010e-001 -1.12751141e-001
      -7.59584755e-002 -1.58933461e-001 -8.90017003e-002 1.66688059e-002
      1.30418641e-002 -7.98007250e-002 -1.17139086e-001 -1.00360855e-001
      -2.90256888e-002 -4.37710620e-002 -1.67780351e-002 2.74751410e-002
      3.94455343e-002 2.59866212e-002 2.99072526e-002 -4.94338758e-003
      -1.78963710e-002 -4.40791436e-002 -1.94736831e-002
      -7.10105300e-002 -7.26325903e-003 5.44230416e-002 5.26393428e-002
      1.98844671e-002 -3.97124179e-002 -6.03909744e-003 1.21594798e-002
      4.28318903e-002 -8.92397314e-002 -7.08262697e-002 -2.45148055e-002
      -2.33796015e-002 -1.61351442e-001 -2.52446204e-001
      -1.57759562e-001 6.21732846e-002 1.47342756e-001 5.21221682e-002
      5.94350733e-002 7.60958642e-002 9.70554203e-002 -1.74212232e-002
      -1.18800960e-001 -8.80525038e-002 7.23411739e-002 6.98299035e-002
      -4.09898572e-002 -7.47134816e-003 4.93865609e-002 1.27841812e-003
      -9.59247053e-002 -2.07537338e-001 -1.42826483e-001 3.87589633e-002
      1.03861541e-001 8.49911720e-002 9.56864879e-002 1.05405048e-001
      8.79260749e-002 7.97629636e-003 -1.31229445e-001 -1.47134051e-001
      -4.63646953e-004 7.13043511e-002 -2.25262269e-002 1.94557980e-002
      2.28761509e-002 1.10906772e-001 4.81713526e-002 -3.75990272e-002
      -1.07132860e-001 -1.49512978e-003 3.07824723e-002 7.50593562e-003
      4.84584868e-002 6.64504990e-002 1.45737886e-001 9.85066667e-002
      6.16653562e-002 2.24019820e-003 2.71323952e-003 -4.27532382e-003
      -9.94610507e-003 1.52653055e-002 1.56543758e-002 2.96882093e-002
      7.20436964e-003 -9.41238627e-002 -2.14076400e-001 -9.45599601e-002
      -2.48194430e-002 -3.10733374e-002 2.40944326e-002 2.54973322e-002
      4.93550301e-002 3.44236866e-002 2.33348552e-002 -8.36660936e-002
      -6.07176460e-002 2.10902598e-002 -9.13633779e-003 3.36199179e-002
      4.70782481e-002 1.04699314e-001 5.35534211e-002 3.11682932e-002
      -2.96446178e-002 -1.00100264e-002 2.12897900e-002 -5.48653072e-003
      1.76838245e-002 5.27150705e-002 7.43431747e-002 7.48883039e-002
      6.03464022e-002 3.31332651e-003 -1.81745330e-003 -5.16023301e-002
      -6.31308034e-002 -4.83986270e-003 6.84229424e-003 4.88658100e-002
      3.50279175e-002 1.18209678e-003 -1.07671656e-001 -7.09775910e-002
      -4.82509173e-002 -3.21374685e-002 -6.50416268e-003 3.55766863e-002
      4.34454493e-002 4.85267118e-002 1.54921208e-002 -1.01277530e-001
      -7.98225105e-002 4.12522852e-002 1.29613448e-002 -1.30020017e-002
      -1.23341810e-002 1.88252274e-002 2.71628182e-002 3.27000767e-002
      6.88472390e-003 7.35105388e-003 6.32117465e-002 4.99647334e-002
      4.19260561e-002 -1.16021680e-002 1.02025047e-002 5.39633520e-002
      4.93310206e-002 2.03434583e-002 4.81495932e-002 -6.31143600e-002
      -3.86969410e-002 -2.63905935e-002 -2.13330220e-002 2.64552664e-002
      6.44133659e-003 -7.09320605e-003 -1.08866006e-001 -8.79694074e-002
      -3.97960618e-002 -5.74966148e-003 -1.96191780e-002
      -3.17216031e-002 1.10346265e-002 3.26914079e-002 1.08582648e-002
      -9.01184976e-002 -9.46174860e-002 6.18099906e-002 3.20258960e-002
      4.43298407e-002 -2.31787674e-002 3.32910605e-002 4.81788479e-002
      2.42096707e-002 -1.70582887e-002 3.46428454e-002 3.40791792e-002
      3.15391421e-002 5.27521335e-002 1.32877724e-002 4.89161164e-002
      7.22982809e-002 5.79422899e-002 1.56775825e-002 5.04983515e-002
      -8.82872641e-002 -4.12085317e-002 8.13189335e-003 -3.97415385e-002
      -8.48319090e-004 3.43314968e-002 -2.52878498e-002 -1.04509674e-001
      -1.12620436e-001 -1.03836328e-001 -7.34376162e-002
      -2.81161949e-004 -3.45274098e-002 4.55869874e-003 4.25098687e-002
      -6.64930616e-004 -8.79958048e-002 -9.57474932e-002
      -1.91021468e-002 -6.52041566e-003 1.72643252e-002 1.94200817e-002
      7.25657269e-002 8.88057053e-002 7.33126700e-002 7.78175052e-003
      2.58030891e-002 -3.20314057e-002 -2.13367343e-002 4.99850437e-002
      4.98964228e-002 5.81333227e-002 8.82316083e-002 8.74369070e-002
      -3.63928964e-003 -4.36614361e-003 -8.80898535e-002
      -8.51129368e-002 -3.10414806e-002 -3.65964770e-002
      -2.95588071e-003 3.94226424e-002 4.33330238e-002 -5.62418848e-002
      -7.28532299e-002 -3.69549952e-002 -5.70469536e-002
      -1.96468867e-002 1.35682803e-003 -2.18834262e-002 4.04794663e-002
      6.41633868e-002 -3.84451933e-002 -5.60998358e-002 -3.01276874e-002
      -3.38975154e-002 6.58763200e-002 6.89366758e-002 6.33192211e-002
      6.57049268e-002 5.93734644e-002 -4.40732613e-002 -5.49645647e-002
      -5.21405935e-002 -3.49799776e-003 8.29749107e-002 9.34569165e-002
      9.96875241e-002 8.96549225e-002 2.97981817e-002 -7.24255368e-002
      -7.18820691e-002 -3.97547297e-002 -2.01386064e-002 2.64220759e-002
      3.47206667e-002 7.89413415e-003 3.61669958e-002 5.44346832e-002
      -3.53881977e-002 -6.98361173e-002 -6.33369461e-002 4.60626278e-003
      7.56992996e-002 7.26605058e-002 2.84559857e-002 6.73012659e-002
      3.79359759e-002 -3.31440084e-002 -5.45692109e-002 2.82163965e-003
      9.09887999e-003 5.55845015e-002 8.61811489e-002 7.60370418e-002
      7.51982555e-002 3.11934147e-002 -9.48572755e-002 -3.98925953e-002
      -3.72269452e-002 -2.09760480e-003 6.04386218e-002 8.04139674e-002
      5.23559377e-002 6.37118965e-002 4.89943027e-002 -6.38609827e-002
      -5.74593693e-002 -6.41991990e-003 1.31558627e-003 5.44705391e-002
      2.58329026e-002 3.42205702e-003 4.43287864e-002 2.85695381e-002
      -2.42631752e-002 -1.01247765e-002 -5.36381872e-003 2.69137789e-002
      6.61657974e-002 2.73471326e-002 -2.47699097e-002 2.16379855e-002
      4.81632687e-002 -5.38543798e-003 -2.25851545e-003 -7.05401152e-002
      -2.41978094e-002 7.72318467e-002 1.00405037e-001 9.62626711e-002
      7.91497976e-002 5.43479808e-002 -2.95761246e-002 -8.74643624e-002
      -1.24798067e-001 -4.34652492e-002 5.70856519e-002 6.38275966e-002
      4.77288738e-002 2.47846823e-002 -8.43750965e-003 -6.96754456e-002
      -1.29386261e-001 2.41312925e-002 4.15652245e-002 8.77349675e-002
      6.16905056e-002 5.01703881e-002 4.21617962e-002 3.30142528e-002
      1.55170411e-002 1.33679658e-002 -1.81743084e-003 2.88785491e-002
      6.06078543e-002 3.87991332e-002 1.44626163e-002 9.25481226e-003
      5.50235214e-004 -6.68045180e-003 -3.28013375e-002 -7.12487176e-002
      -5.58858626e-002 -5.41965151e-003 1.20713329e-002 -3.35093308e-003
      -5.30311465e-002 -8.47980976e-002 -8.71687904e-002
      -7.85573348e-002 9.52011626e-003 -4.99893911e-002 -3.85074168e-002
      -2.69540995e-002 -4.62979227e-002 -5.18956333e-002
      -8.06051418e-002 -3.81618440e-002 -8.11614189e-003 7.24216690e-004
      -2.54402380e-003 6.49179704e-003 -1.29548917e-002 -5.82592608e-003
      -2.33460478e-002 -4.27148454e-002 -5.02982177e-002
      -1.66450925e-002 6.58590868e-002 1.48752192e-002 -2.83307792e-003
      -5.52227208e-003 -2.40236204e-002 5.68439718e-004 4.05543996e-003
      9.35301278e-003 5.45681044e-002 -3.29433307e-002 -4.30445895e-002
      -9.78037044e-002 -1.50557980e-001 -1.57424107e-001
      -9.75032449e-002 -5.27453609e-002 -3.41600515e-002
      -9.47976019e-003 4.76861559e-002 6.91245347e-002 2.20249351e-002
      -3.82710285e-002 -4.75969538e-002 2.95553021e-002 6.91040680e-002
      7.47481212e-002 7.91198537e-002 3.88711877e-003 -1.01346131e-002
      -6.53866678e-002 -1.17981121e-001 -1.02743961e-001
      -6.09803200e-002 -1.93225686e-002 -7.77992513e-003 2.71815155e-002
      5.98723628e-002 8.34714919e-002 3.98367532e-002 4.76787565e-003
      7.22573278e-003 4.89158928e-002 6.76972643e-002 7.68502429e-002
      7.80959129e-002 -7.48778787e-003 1.14227347e-002 -2.70805173e-002
      -6.03782088e-002 -1.75312124e-002 -1.88679677e-002 1.71552747e-002
      3.28227058e-002 4.89600515e-003 3.23414281e-002 -1.85769144e-002
      -5.96557446e-002 -3.39940973e-002 2.64130365e-002 -1.95940938e-002
      -3.97796510e-003 2.99711768e-002 4.12461953e-003 -1.31989801e-002
      1.32524660e-002 4.32424573e-003 -1.81873199e-002 1.77600831e-002
      -1.68518145e-002 1.06734037e-002 1.43903494e-002 -7.15418998e-003
      3.16953436e-002 7.81923532e-003 -3.94291878e-002 6.34366879e-003
      2.67884205e-003 -8.37093405e-003 -6.69859932e-004 1.03363767e-002
      4.48099989e-003 3.11668590e-003 4.25998755e-002 3.69241834e-002
      -2.93016173e-002 -3.83916497e-002 -5.22285141e-002 1.89664960e-002
      4.87603322e-002 -9.33039933e-003 -2.08433792e-002 5.96265309e-003
      2.69337557e-002 -3.33793089e-002 -7.23380246e-004 -2.71212421e-002
      6.89034443e-003 3.34756263e-002 -5.22619002e-002 -1.13828331e-002
      2.02470813e-002 3.12575027e-002 -4.12081443e-002 -6.86976910e-002
      -8.13926607e-002 -4.76826448e-003 9.49506089e-003 -3.53683308e-002
      -4.68567461e-002 -1.13077648e-002 4.30887425e-003 -4.82678786e-002
      -4.26084213e-002 -6.06245957e-002 3.32460110e-003 -8.47604009e-004
      -5.15439771e-002 -1.10163540e-002 2.96120234e-002 3.92766595e-002
      -2.80369800e-002 -1.85644850e-002 -4.84048249e-003
      -1.68999024e-002 1.47914281e-002 -3.71443257e-002 -4.13760617e-002
      4.35378812e-002 3.95404994e-002 -1.86171699e-002 1.55416131e-003
      3.11026070e-003 -9.61177517e-003 4.36462928e-003 -7.97426105e-002
      -5.47802746e-002 -5.83925750e-003 3.63730453e-002 -8.35086126e-003
      -1.31475450e-002 -2.18282435e-002 1.06228516e-002 -7.50865729e-004
      -3.72024588e-002 -4.20918949e-002 1.30796274e-002 5.30457264e-003
      -2.83580143e-002 -7.02604651e-003 -2.10406203e-002 2.07494590e-002
      9.72035155e-003 -4.12358157e-002 -3.49087454e-002 1.25149013e-002
      5.17212041e-003 -2.30367295e-002 -1.92736294e-002 6.01747353e-003
      9.01443884e-003 3.00196419e-003 -4.17918265e-002 -1.49378609e-002
      -5.42721860e-002 -3.72377932e-002 -8.60074628e-003
      -9.57978051e-003 1.29998568e-003 4.31451364e-004 4.91218967e-003
      6.62959088e-003 -1.38126127e-002 1.70878898e-002 -6.90917205e-003
      -2.94311699e-002 -1.81902237e-002 -3.33145708e-002 2.22117286e-002
      1.43845426e-002 1.26719731e-003 1.47614367e-002 -4.85951342e-002
      -4.34065647e-002 -5.23147546e-003 -1.19343363e-002
      -6.75293012e-003 1.24084698e-002 2.40272656e-002 2.29409710e-002
      4.10828367e-002 -4.43617739e-002 -4.07182500e-002 2.02392135e-003
      -4.00654040e-003 -2.57013217e-002 -8.07986632e-002
      -5.93459345e-002 2.47472264e-002 6.64603561e-002 4.24228758e-002
      3.76696661e-002 4.99820188e-002 4.58917879e-002 2.08576638e-002
      -5.80947399e-002 -1.33344427e-001 -1.33755254e-002 3.44549865e-002
      -2.74096821e-002 -1.89292319e-002 3.14350647e-004 -5.43684838e-003
      2.38019340e-002 -3.19081242e-003 1.25575829e-002 5.31067438e-002
      6.38391003e-002 2.30805650e-002 3.04685570e-002 2.95093581e-002
      3.21976691e-002 7.33451918e-002 4.82903682e-002 -1.51845627e-002
      4.09906283e-002 4.55329455e-002 4.40623099e-003 3.27169001e-002
      5.04255202e-003 2.27785651e-002 1.66637115e-002 -3.78308557e-002
      -1.76388577e-001 -5.97162023e-002 3.20990384e-002 6.27612416e-003
      6.44059405e-002 4.16487753e-002 3.26671377e-002 3.18491384e-002
      2.76783556e-002 -1.04930840e-001 -4.77192365e-002 7.08091632e-002
      -1.61527679e-003 9.27241445e-007 1.34174088e-002 1.99504681e-002
      2.77191363e-002 1.64509881e-002 -6.59629703e-002 -1.46011729e-002
      4.01655324e-002 -9.56679322e-003 3.45933549e-002 4.11691032e-002
      2.84556076e-002 5.54456636e-002 3.25778387e-002 -3.52770053e-002
      -2.14762706e-002 2.45838915e-003 -1.85846295e-002 2.28181761e-002
      2.17072312e-002 3.54653560e-002 2.10227128e-002 2.82845646e-002
      -9.40307155e-002 -5.21692336e-002 5.93948457e-003 1.55330868e-002
      1.51026919e-002 4.54470813e-002 2.81022638e-002 3.41501720e-002
      3.53742391e-002 -4.54890132e-002 -2.43627355e-002 -2.11337153e-002
      -3.05532552e-002 3.35819870e-002 2.81891227e-002 8.71186238e-003
      4.01615910e-002 3.41509506e-002 -5.52198812e-002 -3.14789936e-002
      -5.93840703e-003 1.46371545e-002 5.57861775e-002 3.15786675e-002
      -1.02766184e-002 3.53389531e-002 4.92716767e-002 -1.81230027e-002
      -3.82227339e-002 -1.69213186e-003 -2.46445872e-002
      -1.41846985e-002 -2.73039006e-002 -1.27483271e-002 6.22931751e-004
      8.00554361e-003 -8.13313201e-002 -3.40235084e-002 7.21701002e-003
      -3.15565639e-003 -1.52167131e-003 -4.21427563e-003 1.22143086e-002
      1.52665488e-002 7.02953432e-003 -5.43429814e-002 -2.67339312e-002
      -5.50499186e-003 -1.09023536e-002 1.92517545e-002 -1.11522553e-002
      -4.06039022e-002 -3.83421034e-003 2.44326517e-002 -2.96617802e-002
      -2.01028939e-002 2.33611241e-002 4.12524538e-003 4.58101779e-002
      1.52826328e-002 1.67517141e-002 2.13450827e-002 2.50472315e-002
      5.42090181e-003 2.52635125e-002 -1.87337808e-002 -3.22328843e-002
      3.21701006e-003 -2.52725966e-002 4.56254976e-003 -9.84558254e-004
      -3.42264445e-003 -8.10688511e-002 -8.05960596e-002
      -3.08194607e-002 -4.44563851e-002 -4.13400773e-003
      -3.96864973e-002 -1.62404943e-002 3.52388527e-003 3.73222702e-003
      -5.03580980e-002 -4.50576842e-002 -1.71497948e-002
      -5.64163178e-002 1.28877005e-002 1.16457362e-002 5.44072501e-003
      6.64305501e-003 2.02450808e-002 5.35093527e-003 2.05548890e-002
      2.09403690e-003 -2.10129377e-002 1.04231751e-002 1.93296317e-002
      5.53591084e-003 3.61684225e-002 4.98911031e-002 4.48481925e-003
      1.50607703e-002 -1.03746783e-002 -2.70930026e-002 -2.25208420e-002
      -7.09134787e-002 -7.60661215e-002 -2.86709648e-002 1.21419290e-002
      -3.25864144e-002 1.00087165e-003 3.04487068e-002 -2.15702988e-002
      -5.80188958e-003 -3.28789949e-002 -5.68163618e-002
      -3.59119028e-002 3.08851358e-002 3.24464194e-003 6.51128963e-003
      8.83603469e-003 -3.95998731e-003 2.56421156e-002 -9.41098388e-003
      -4.35022935e-002 4.15487075e-003 4.36603948e-002 6.83793472e-003
      2.98773758e-002 4.08387445e-002 3.68638895e-002 6.72864169e-002
      1.41177131e-002 -3.94129418e-002 -1.35334609e-002 4.67324108e-002
      1.11054238e-002 6.02234267e-002 2.09509823e-002 -2.34486684e-002
      -5.37143322e-004 -2.40742490e-002 -4.02302817e-002
      -3.12185772e-002 3.57089601e-002 -1.32328551e-002 -3.25818211e-002
      8.86004325e-003 -6.58332603e-003 3.74727137e-002 1.58026200e-002
      -1.63918734e-002 -5.79503411e-003 2.12234836e-002 -2.46229023e-002
      3.03791813e-003 6.13892153e-002 -2.43112305e-003 3.03986166e-002
      6.32837461e-003 -3.06044929e-002 -5.09687560e-003 4.85380292e-002
      2.59525310e-002 3.19591723e-002 4.14941721e-002 9.64305655e-004
      1.20397247e-002 2.14519016e-002 2.76867417e-003 1.54319443e-002
      5.88796102e-002 4.50986661e-002 4.05575670e-002 1.89947244e-002
      -6.31410349e-003 2.09644530e-002 -1.60202645e-002 -5.55736199e-002
      -2.39154361e-002 -7.85210356e-003 -1.34313311e-002 2.70269606e-002
      1.23038702e-002 1.71312448e-002 1.50080025e-002 -2.36537959e-002
      -7.71739632e-002 -4.63580675e-002 7.75338616e-003 3.04328650e-003
      3.17996256e-002 6.12007268e-002 7.58842845e-003 2.60864124e-002
      3.78604280e-003 -2.68493835e-002 -6.13635685e-003 3.96046638e-002
      1.96771603e-002 6.95704818e-002 4.46996912e-002 3.58238854e-002
      2.80742180e-002 1.59324743e-002 -2.11934745e-002 -4.12541665e-002
      3.52746099e-002 3.73217016e-002 4.55181822e-002 3.02170124e-002
      1.72698237e-002 3.28329206e-002 3.83500359e-003 -3.15788016e-002
      -3.16339731e-002 -9.25296452e-003 -2.15452481e-002
      -2.01953501e-002 9.70336888e-003 7.84377276e-004 -3.32316128e-003
      -5.01150964e-003 -2.04712320e-002 -2.84297932e-002
      -3.66871394e-002 -3.81773971e-002 -1.64972879e-002 2.69901995e-002
      3.93081047e-002 4.39321585e-002 3.25955451e-002 3.32181226e-004
      -2.04832889e-002 1.85271744e-002 1.67321078e-002 6.45813020e-003
      3.49393412e-002 4.36072126e-002 5.22715561e-002 6.39053360e-002
      1.74689256e-002 -8.84807855e-003 2.37080106e-003 1.77045837e-002
      1.63157191e-002 -1.65015925e-002 -4.73135039e-002 -4.85439934e-002
      -5.64108528e-002 -5.05955331e-002 -7.13974535e-002
      -6.79261461e-002 -6.49619624e-002 -1.80533342e-002 8.88280105e-003
      -6.70910999e-002 -6.69992864e-002 -6.27161041e-002
      -1.66750345e-002 -1.78721566e-002 -1.67114474e-002
      -8.73973314e-003 1.52924508e-002 2.29062978e-002 -1.32153053e-002
      -2.33968664e-002 2.23777033e-002 4.01485385e-003 -2.80129910e-002
      -1.53037906e-002 1.96968336e-002 3.61473188e-002 6.02766052e-002
      7.87224993e-003 -4.85300971e-003 2.03073826e-002 4.65037860e-002
      3.89922634e-002 1.47716617e-002 6.43374771e-002 7.03013018e-002
      -2.65575405e-002 -6.53211996e-002 -9.74740237e-002
      -1.07205719e-001 -5.57893515e-002 -3.65059413e-002
      -4.65405472e-002 -2.43347678e-002 -5.17424569e-003 2.44321711e-002
      1.89664699e-002 4.26817033e-003 -1.36280181e-002 2.23040092e-003
      2.37225480e-002 2.20980719e-002 3.04606855e-002 5.87324016e-002
      -9.98548884e-003 -2.05177292e-002 -3.44468802e-002
      -1.80950705e-002 1.99639462e-002 2.69417204e-002 -2.78669465e-002
      2.77066827e-002 2.49658693e-002 -1.03842688e-003 4.58716974e-002
      4.55437936e-002 4.06828709e-002 5.42465001e-002 4.13963832e-002
      3.26136164e-002 4.25061770e-002 2.54470222e-002 -2.88295131e-002
      9.01073217e-003 9.52158310e-003 1.00259287e-002 4.31872439e-003
      5.93585381e-003 2.04007197e-002 2.23740805e-002 4.06970968e-003
      2.54018549e-002 2.41739787e-002 -4.83686337e-003 3.16699408e-002
      2.32592057e-002 -1.33674946e-002 8.95269308e-003 2.47725379e-002
      1.34417564e-002 -4.23463471e-002 2.74785664e-002 3.30800712e-002
      1.13596683e-002 3.82098965e-002 -3.42077836e-002 1.66587457e-002
      3.13237086e-002 -2.06198031e-003 -1.44582679e-002 3.67822535e-002
      1.31651219e-002 7.78296357e-003 1.92218609e-002 -3.17922868e-002
      2.59488970e-002 4.27698642e-002 -1.05532156e-002 -1.93824694e-002
      2.86078323e-002 4.39278409e-002 -1.13753993e-002 -4.28985357e-002
      -5.23063578e-002 1.19147496e-002 3.56173143e-002 -1.61392447e-002
      -5.26630469e-002 1.92588214e-002 2.93610934e-002 -2.00203303e-002
      -3.94460894e-002 -4.64652367e-002 1.65642127e-002 2.80042011e-002
      -4.01203707e-002 -4.27339375e-002 -9.63029079e-003 5.91940293e-003
      -6.20544441e-002 -8.32038932e-003 -6.00555688e-002 2.09849700e-002
      4.38036323e-002 -3.67358350e-003 -7.21668899e-002 -1.41740721e-002
      1.69232711e-002 -5.67444637e-002 1.90362823e-003 -6.30862266e-002
      4.88178013e-003 1.35919200e-002 -6.23184852e-002 -3.70113850e-002
      1.30491806e-002 2.02463381e-002 -9.09626205e-003 -2.36366931e-002
      -2.19623893e-002 -7.88651779e-003 2.67416164e-002 -2.24786922e-002
      -4.05023359e-002 2.60692034e-002 2.14120075e-002 -2.72500031e-002
      -1.98859833e-002 -3.48868668e-002 1.06027955e-002 2.20884401e-002
      -1.64210070e-002 -6.73270524e-002 5.68663795e-003 -7.16187852e-003
      -5.03372923e-002 1.91693809e-002 -3.89369354e-002 -2.91079916e-002
      1.06300088e-002 -2.45933980e-002 -4.65692990e-002 -3.02821808e-002
      -4.56324331e-002 -3.62119265e-002 3.77708375e-002 -4.32612672e-002
      -4.15897854e-002 -2.44145561e-003 -3.05882040e-002
      -2.07477696e-002 -1.92184858e-002 5.56057552e-004 -3.91661376e-002
      -1.69279277e-002 -3.28038335e-002 1.17886486e-002 3.06079555e-002
      1.83779672e-002 -6.19927049e-003 -4.23879847e-002 2.49547651e-003
      7.94550125e-003 2.15842927e-004 -4.33217781e-003 1.81602873e-002
      5.00002876e-002 1.94990244e-002 -1.74131859e-002 -3.39707471e-002
      -3.44865769e-002 -4.82997634e-002 6.47206679e-002 -4.60754745e-002
      -2.64482033e-002 2.01089703e-003 -1.58975739e-002 -6.27184510e-002
      -5.66016100e-002 -3.57532389e-002 -4.19683345e-002 7.11572245e-002
      6.90862536e-003 1.26343537e-002 1.36681590e-002 -4.38570864e-002
      3.28557595e-004 -2.30802409e-002 -1.38558894e-002 -8.00045018e-005
      -9.56770778e-003 -1.06981285e-002 -1.68761499e-002 1.51903545e-002
      3.62090245e-002 2.05621906e-002 2.48027742e-002 7.39941699e-003
      1.38403978e-002 1.34560633e-002 4.80535217e-002 5.55858724e-002
      4.62475829e-002 5.84733002e-002 -4.76392582e-002 -2.60604545e-002
      -4.41887043e-003 -3.90540473e-002 4.07463461e-002 -2.00445224e-002
      -1.03164241e-002 -1.80086289e-002 -3.01558003e-002
      -6.17436785e-003 -2.70806043e-003 2.74453107e-002 -6.98400568e-003
      6.48893490e-002 1.13063408e-002 2.49081310e-002 2.28580926e-002
      2.35765148e-002 2.56870110e-002 -4.12259623e-002 -5.32255769e-002
      -3.15453932e-002 -5.14654666e-002 -1.06734056e-002 2.38740090e-002
      3.52707272e-003 3.51333395e-002 2.52302401e-002 -5.67297079e-003
      -1.28355641e-002 4.54174541e-003 -2.97332648e-002 2.48934031e-002
      3.44166793e-002 3.76157053e-002 3.90843898e-002 -1.30860414e-003
      -4.31880280e-002 -1.61306150e-002 -4.00427096e-002 1.90224610e-002
      -4.22757789e-002 7.79462047e-003 -3.09455930e-003 1.84733085e-002
      6.29158178e-003 -5.18315751e-003 1.97416283e-002 -3.85750784e-003
      4.97299507e-002 -3.61905084e-004 6.16911910e-002 3.67335789e-002
      1.90278478e-002 -2.68388470e-003 -1.54799679e-002 2.18498278e-002
      4.65132878e-004 -6.99101686e-002 -1.13132540e-002 3.43602002e-002
      -1.00585305e-004 -3.60051543e-003 2.13311445e-002 4.05795611e-002
      7.93005526e-002 3.96307092e-003 -6.23173080e-002 -3.35140247e-003
      5.15365116e-002 -2.04917067e-003 5.08304918e-003 -1.14012640e-002
      -1.19106472e-002 1.09615568e-002 -1.97747108e-002 2.64292657e-002
      -2.39145998e-002 4.78862561e-002 4.88486327e-002 2.35212594e-002
      3.42861265e-002 2.77660582e-002 4.42579538e-002 -3.00301344e-005
      5.01643717e-002 -9.50336270e-003 6.09052666e-002 7.14445934e-002
      4.19274345e-002 8.19277484e-003 5.13855368e-003 3.59953754e-002
      -5.89108095e-003 -8.51070061e-002 -3.92002687e-002 1.28317801e-002
      -4.10025707e-003 7.44301872e-003 2.55711377e-002 8.30823206e-004
      6.25445396e-002 4.88659367e-003 -2.30636671e-002 -1.47612952e-003
      3.90547402e-002 3.24374139e-002 3.88309881e-002 -7.53111963e-004
      -5.49986633e-003 1.70712899e-002 4.00210544e-003 4.23584320e-002
      -5.80970198e-002 1.32999336e-002 3.35753001e-002 7.21311942e-003
      3.67011689e-002 8.21430515e-003 6.50799498e-002 1.02840494e-002
      5.15478589e-002 -4.84221838e-002 2.46454757e-002 2.16633994e-002
      4.12319079e-002 -3.23973931e-002 -8.56020153e-002 3.96105926e-004
      -2.11326834e-002 -3.51753533e-002 -1.42044779e-002 1.29336361e-002
      -3.34733236e-003 1.06235966e-002 1.40250502e-002 -4.01807763e-002
      -4.14110813e-003 -2.82927160e-003 7.85142928e-003 2.15543825e-002
      4.15321738e-002 1.59075912e-002 2.94128768e-002 -9.59310122e-003
      -5.10310940e-002 3.61075327e-002 -2.26488411e-002 2.69465540e-002
      -6.14662021e-002 1.30053032e-002 -1.02203330e-002 1.44375917e-002
      2.14237496e-002 -2.49149669e-002 3.11388951e-002 7.27704866e-003
      5.66440932e-002 1.73270442e-002 4.76779863e-002 2.13936325e-002
      4.72089909e-002 6.62255473e-003 -2.68993583e-002 -1.78483073e-002
      -2.84807552e-002 -3.13931927e-002 -1.38243129e-002 4.50615864e-003
      -2.23346590e-003 1.03742806e-002 2.18899529e-002 3.29430550e-002
      3.36442515e-002 1.00047691e-002 -3.59466970e-002 -2.93126088e-002
      -3.66112427e-003 -4.36402345e-003 4.23075072e-002 2.19574682e-002
      -2.02444824e-003 1.68872662e-002 -8.09271634e-003 2.40572412e-002
      -3.48667130e-002 1.20104821e-002 3.24134412e-003 4.85143401e-002
      6.43330743e-004 1.08778523e-003 2.95433737e-002 -3.78836435e-003
      4.94289771e-002 -2.91714258e-002 1.50101930e-002 -1.39313396e-002
      1.60875693e-002 8.82853009e-003 -1.59576014e-002 3.02444631e-003
      1.32070538e-002 -1.90951005e-002 -3.35420184e-002 6.76674594e-004
      1.67715847e-002 5.05320635e-003 -1.00748688e-002 -3.02969031e-002
      -8.04339070e-003 4.17368952e-003 -1.02412943e-002 -2.87261116e-003
      3.30315009e-002 3.88075747e-002 8.04906245e-003 -2.57635880e-002
      -3.07405684e-002 1.99338868e-002 -3.06950905e-003 7.49353915e-002
      -1.51469209e-003 2.64275502e-002 7.98251480e-003 6.06854679e-003
      3.12168617e-004 -2.48767585e-002 1.67142730e-002 -9.12749581e-003
      7.77943507e-002 1.95964854e-002 4.62086350e-002 4.04476151e-002
      1.71625335e-002 2.96321679e-002 -1.35398200e-002 -1.13667548e-002
      -1.85454320e-002 -4.91765738e-002 -5.23826778e-002 4.03572014e-003
      2.89679747e-002 5.89915477e-002 4.90856431e-002 2.74389181e-002
      5.19894483e-003 4.16115904e-003 -4.81088571e-002 -5.03033623e-002
      6.41718274e-003 2.25638449e-002 5.14653511e-002 1.06163872e-002
      1.33575769e-002 1.67372487e-002 -2.45279144e-003 3.61440554e-002
      -3.56019139e-002 2.06459761e-002 3.75544578e-002 3.16357538e-002
      2.97689792e-002 1.76470708e-002 1.97265893e-002 1.31792137e-002
      7.15813488e-002 -2.61716582e-002 1.72733404e-002 3.74456756e-002
      1.99787077e-002 2.19513495e-002 2.77391169e-002 1.12581840e-002
      2.45503313e-003 -3.65696624e-002 -3.07985358e-002 3.44302668e-003
      -2.67438212e-004 2.25367979e-003 1.15788067e-002 2.40255706e-002
      1.34411054e-002 2.15330739e-002 -1.65268797e-002 -9.05937888e-003
      1.48536609e-002 2.49602906e-002 1.41549241e-002 2.29815673e-002
      -2.29997467e-002 5.14348131e-003 1.26159992e-002 7.77606964e-002
      -1.26777487e-002 3.71634704e-003 1.55377919e-002 2.08652020e-002
      2.26783454e-002 -1.10915424e-002 2.03698836e-002 -7.86066463e-004
      7.87020773e-002 2.50627752e-002 1.69832911e-002 6.29546214e-003
      3.70322466e-002 8.47927574e-003 -2.57381350e-002 -5.50717525e-002
      -2.94396821e-002 -5.27523719e-002 -5.18374294e-002
      -3.95251773e-002 -8.32787773e-004 1.15505876e-002 4.14766036e-002
      1.00957844e-002 -1.99164972e-002 3.19858827e-002 7.32354913e-003
      -1.76906493e-003 -2.29573026e-002 1.72875989e-002 3.61442976e-002
      4.24516834e-002 -2.78952029e-002 -1.59205031e-002 -1.74882431e-002
      5.12407199e-002 -5.35759889e-002 -4.25154716e-002 -2.79543791e-002
      5.84090576e-002 5.21716774e-002 1.34775648e-003 -9.01929010e-003
      4.11371477e-002 4.85663414e-002 -3.41080204e-002 -2.21709367e-002
      -6.71341317e-003 6.66340515e-002 -3.45159415e-003 4.52450523e-003
      -2.65934388e-003 9.97967273e-003 -4.65898588e-003 -4.95507754e-003
      -4.79772687e-002 -2.31401585e-002 8.46481603e-003 -1.06333327e-002
      4.83451672e-002 3.71747762e-002 1.51325185e-002 1.91888642e-002
      2.49182414e-002 -1.16948551e-002 1.29644871e-002 -7.21153978e-004
      2.12464761e-003 -3.24753597e-002 -2.06360221e-002 -9.11037717e-003
      2.53701191e-002 -3.84610817e-002 -6.54233843e-002 -4.99799810e-002
      3.76292900e-003 3.40663129e-003 3.94276008e-002 1.39681539e-002
      -1.49642639e-002 6.78517967e-002 2.25320626e-002 -3.05116773e-002
      -1.12054413e-002 -4.57917340e-003 -1.58501342e-002 5.23234122e-002
      2.61312798e-002 1.39469691e-002 4.82631885e-002 6.72201568e-004
      1.00805508e-002 3.95803154e-002 -1.74667463e-002 -8.45989026e-003
      2.30091978e-002 1.90076872e-003 1.71437617e-002 3.68346795e-002
      -4.14043013e-003 1.58146657e-002 3.96724008e-002 -1.21305706e-002
      -2.04089526e-002 3.70938554e-002 2.95577925e-002 -9.68770823e-004
      1.08309999e-001 -7.10792840e-003 -2.33789887e-002 -1.29748145e-002
      -3.21898460e-002 -2.94482876e-002 3.14921513e-003 -1.04686739e-002
      1.82549693e-002 9.76080075e-002 -1.68825854e-002 -2.97322571e-002
      -5.77582326e-003 -2.18856335e-002</_></support_vectors>
  <decision_functions>
    <_>
      <sv_count>1</sv_count>
      <rho>-1.8968675382264588e+000</rho>
      <alpha>
        1.</alpha>
      <index>
        0</index></_></decision_functions></my_svm>
</opencv_storage>
